{"learner":{"attributes":{"scikit_learn":"{\"_estimator_type\": \"regressor\"}"},"feature_names":["Loan Repayment","Capital","Profit Percentage","No of Meetings","Attendance Percentage"],"feature_types":["float","float","float","int","float"],"gradient_booster":{"model":{"gbtree_model_param":{"num_parallel_tree":"1","num_trees":"30"},"iteration_indptr":[0,1,2,3,4,5,6,7,8,9,10,11,12,13,14,15,16,17,18,19,20,21,22,23,24,25,26,27,28,29,30],"tree_info":[0,0,0,0,0,0,0,0,0,0,0,0,0,0,0,0,0,0,0,0,0,0,0,0,0,0,0,0,0,0],"trees":[{"base_weights":[-4.7668814E-7,-4.174479E0,5.535265E0,-7.878867E0,-1.7954594E-1,3.1432912E0,1.2282237E1,-3.723079E0,-1.6760592E0,-3.605212E-1,2.9015489E0,4.023953E-1,2.1409202E0,3.2107265E0,7.583281E0],"categories":[],"categories_nodes":[],"categories_segments":[],"categories_sizes":[],"default_left":[0,0,0,0,0,0,0,0,0,0,0,0,0,0,0],"id":0,"left_children":[1,3,5,7,9,11,13,-1,-1,-1,-1,-1,-1,-1,-1],"loss_changes":[1.848594E6,6.749266E5,5.550476E5,2.4570438E5,2.2098748E5,1.8271238E5,1.8454325E5,0E0,0E0,0E0,0E0,0E0,0E0,0E0,0E0],"parents":[2147483647,0,0,1,1,2,2,3,3,4,4,5,5,6,6],"right_children":[2,4,6,8,10,12,14,-1,-1,-1,-1,-1,-1,-1,-1],"split_conditions":[1.7745256E1,5.053545E1,5.6949726E1,1.2841601E0,7.050409E1,3.2285233E1,7.602934E1,-3.723079E0,-1.6760592E0,-3.605212E-1,2.9015489E0,4.023953E-1,2.1409202E0,3.2107265E0,7.583281E0],"split_indices":[2,0,0,2,0,2,0,0,0,0,0,0,0,0,0],"split_type":[0,0,0,0,0,0,0,0,0,0,0,0,0,0,0],"sum_hessian":[8E4,4.5606E4,3.4394E4,2.3663E4,2.1943E4,2.5393E4,9.001E3,7.947E3,1.5716E4,1.9881E4,2.062E3,1.7498E4,7.895E3,8.027E3,9.74E2],"tree_param":{"num_deleted":"0","num_feature":"5","num_nodes":"15","size_leaf_vector":"1"}},{"base_weights":[1.2991382E-4,-4.3819866E0,2.899424E0,-6.090205E0,4.6817032E-1,-7.149782E-1,5.5826855E0,-3.2007744E0,-1.4504566E0,-1.7979391E-1,2.5656323E0,-6.913547E-1,6.5883845E-1,1.1299082E0,2.9918947E0],"categories":[],"categories_nodes":[],"categories_segments":[],"categories_sizes":[],"default_left":[0,0,0,0,0,0,0,0,0,0,0,0,0,0,0],"id":1,"left_children":[1,3,5,7,9,11,13,-1,-1,-1,-1,-1,-1,-1,-1],"loss_changes":[1.01642906E6,2.6392562E5,4.669522E5,1.3536688E5,7.161246E4,9.493439E4,2.2031369E5,0E0,0E0,0E0,0E0,0E0,0E0,0E0,0E0],"parents":[2147483647,0,0,1,1,2,2,3,3,4,4,5,5,6,6],"right_children":[2,4,6,8,10,12,14,-1,-1,-1,-1,-1,-1,-1,-1],"split_conditions":[1.0809527E1,5.708385E1,4.799203E1,3.875834E1,7.602934E1,2.7641323E1,2.9701412E1,-3.2007744E0,-1.4504566E0,-1.7979391E-1,2.5656323E0,-6.913547E-1,6.5883845E-1,1.1299082E0,2.9918947E0],"split_indices":[2,0,0,0,0,2,2,0,0,0,0,0,0,0,0],"split_type":[0,0,0,0,0,0,0,0,0,0,0,0,0,0,0],"sum_hessian":[8E4,3.1854E4,4.8146E4,2.3557E4,8.297E3,2.0514E4,2.7632E4,5.067E3,1.849E4,7.33E3,9.67E2,1.3269E4,7.245E3,1.9547E4,8.085E3],"tree_param":{"num_deleted":"0","num_feature":"5","num_nodes":"15","size_leaf_vector":"1"}},{"base_weights":[1.1324568E-4,-4.138723E0,1.6523323E0,-7.1658387E0,-2.6673627E0,6.313135E-1,7.4503956E0,-3.258217E0,-1.7699121E0,-9.516276E-1,1.529071E0,-8.499412E-1,5.179955E-1,1.8251591E0,4.9294424E0],"categories":[],"categories_nodes":[],"categories_segments":[],"categories_sizes":[],"default_left":[0,0,0,0,0,0,0,0,0,0,0,0,0,0,0],"id":2,"left_children":[1,3,5,7,9,11,13,-1,-1,-1,-1,-1,-1,-1,-1],"loss_changes":[5.470748E5,1.0164291E5,3.3847922E5,3.485878E4,6.021365E4,1.8449397E5,1.04968625E5,0E0,0E0,0E0,0E0,0E0,0E0,0E0,0E0],"parents":[2147483647,0,0,1,1,2,2,3,3,4,4,5,5,6,6],"right_children":[2,4,6,8,10,12,14,-1,-1,-1,-1,-1,-1,-1,-1],"split_conditions":[6.012285E0,4.5048424E1,6.1398453E1,-8.243997E0,1.3E1,4.104053E1,1.3E1,-3.258217E0,-1.7699121E0,-9.516276E-1,1.529071E0,-8.499412E-1,5.179955E-1,1.8251591E0,4.9294424E0],"split_indices":[2,0,0,2,3,0,3,0,0,0,0,0,0,0,0],"split_type":[0,0,0,0,0,0,0,0,0,0,0,0,0,0,0],"sum_hessian":[8E4,2.2824E4,5.7176E4,7.464E3,1.536E4,4.8616E4,8.56E3,1.903E3,5.561E3,1.4423E4,9.37E2,1.1678E4,3.6938E4,7.431E3,1.129E3],"tree_param":{"num_deleted":"0","num_feature":"5","num_nodes":"15","size_leaf_vector":"1"}},{"base_weights":[1.044517E-4,-1.4385481E0,3.2794304E0,-2.6159384E0,8.201026E-1,2.7073324E0,1.0472284E1,-1.9668173E0,-5.895528E-1,-7.9758E-1,5.1890355E-1,5.808254E-1,1.9176315E0,2.5242648E0,4.540623E0],"categories":[],"categories_nodes":[],"categories_segments":[],"categories_sizes":[],"default_left":[0,0,0,0,0,0,0,0,0,0,0,0,0,0,0],"id":3,"left_children":[1,3,5,7,9,11,13,-1,-1,-1,-1,-1,-1,-1,-1],"loss_changes":[3.7743428E5,1.478786E5,1.0035747E5,9.371197E4,6.0297367E4,6.421111E4,1.7118516E4,0E0,0E0,0E0,0E0,0E0,0E0,0E0,0E0],"parents":[2147483647,0,0,1,1,2,2,3,3,4,4,5,5,6,6],"right_children":[2,4,6,8,10,12,14,-1,-1,-1,-1,-1,-1,-1,-1],"split_conditions":[2.3007168E1,5.435358E1,6.77E1,-5.0977826E0,-2.300933E0,4.0296013E1,4.664822E4,-1.9668173E0,-5.895528E-1,-7.9758E-1,5.1890355E-1,5.808254E-1,1.9176315E0,2.5242648E0,4.540623E0],"split_indices":[2,0,0,2,2,2,1,0,0,0,0,0,0,0,0],"split_type":[0,0,0,0,0,0,0,0,0,0,0,0,0,0,0],"sum_hessian":[8E4,5.5606E4,2.4394E4,3.6552E4,1.9054E4,2.2598E4,1.796E3,5.18E3,3.1372E4,3.949E3,1.5105E4,1.8688E4,3.91E3,1.248E3,5.48E2],"tree_param":{"num_deleted":"0","num_feature":"5","num_nodes":"15","size_leaf_vector":"1"}},{"base_weights":[1.5764164E-4,-1.1141403E0,2.1263564E0,-5.8067293E0,-6.871369E-1,-6.3413054E-1,3.212963E0,-3.0755377E0,-1.4574709E0,-3.3945662E-1,9.006009E-1,-1.103405E0,9.324228E-2,8.543224E-1,3.1641417E0],"categories":[],"categories_nodes":[],"categories_segments":[],"categories_sizes":[],"default_left":[0,0,0,0,0,0,0,0,0,0,0,0,0,0,0],"id":4,"left_children":[1,3,5,7,9,11,13,-1,-1,-1,-1,-1,-1,-1,-1],"loss_changes":[1.8954225E5,1.0517695E5,8.252004E4,1.8408312E4,7.8883086E4,2.2352746E4,5.284558E4,0E0,0E0,0E0,0E0,0E0,0E0,0E0,0E0],"parents":[2147483647,0,0,1,1,2,2,3,3,4,4,5,5,6,6],"right_children":[2,4,6,8,10,12,14,-1,-1,-1,-1,-1,-1,-1,-1],"split_conditions":[2.1291954E1,3.427711E1,4.371716E1,1.5374931E1,6.4509766E1,3.1763123E1,5.3672496E4,-3.0755377E0,-1.4574709E0,-3.3945662E-1,9.006009E-1,-1.103405E0,9.324228E-2,8.543224E-1,3.1641417E0],"split_indices":[2,0,0,0,0,0,1,0,0,0,0,0,0,0,0],"split_type":[0,0,0,0,0,0,0,0,0,0,0,0,0,0,0],"sum_hessian":[8E4,5.2491E4,2.7509E4,4.377E3,4.8114E4,7.77E3,1.9739E4,7.68E2,3.609E3,4.2942E4,5.172E3,1.84E3,5.93E3,1.8804E4,9.35E2],"tree_param":{"num_deleted":"0","num_feature":"5","num_nodes":"15","size_leaf_vector":"1"}},{"base_weights":[9.9502526E-5,-2.8126E0,5.211025E-1,-6.2489657E0,-2.0834818E0,-1.2575008E0,1.3410966E0,-2.1268768E0,-3.9047495E-1,-6.975637E-1,1.5376741E0,-1.2181973E0,-2.5789976E-1,3.2716167E-1,2.4014766E0],"categories":[],"categories_nodes":[],"categories_segments":[],"categories_sizes":[],"default_left":[0,0,0,0,0,0,0,0,0,0,0,0,0,0,0],"id":5,"left_children":[1,3,5,7,9,11,13,-1,-1,-1,-1,-1,-1,-1,-1],"loss_changes":[1.17236914E5,3.1313445E4,9.844522E4,9.090414E3,1.7989082E4,2.3750133E4,7.713018E4,0E0,0E0,0E0,0E0,0E0,0E0,0E0,0E0],"parents":[2147483647,0,0,1,1,2,2,3,3,4,4,5,5,6,6],"right_children":[2,4,6,8,10,12,14,-1,-1,-1,-1,-1,-1,-1,-1],"split_conditions":[-9.258173E-1,-1.4991223E1,4.4806087E1,4.7866227E4,8.079573E1,2.8522968E1,1.5E1,-2.1268768E0,-3.9047495E-1,-6.975637E-1,1.5376741E0,-1.2181973E0,-2.5789976E-1,3.2716167E-1,2.4014766E0],"split_indices":[2,2,0,1,0,0,3,0,0,0,0,0,0,0,0],"split_type":[0,0,0,0,0,0,0,0,0,0,0,0,0,0,0],"sum_hessian":[8E4,1.2502E4,6.7498E4,2.187E3,1.0315E4,2.1299E4,4.6199E4,1.869E3,3.18E2,9.981E3,3.34E2,2.646E3,1.8653E4,4.4526E4,1.673E3],"tree_param":{"num_deleted":"0","num_feature":"5","num_nodes":"15","size_leaf_vector":"1"}},{"base_weights":[6.5333625E-5,-3.671258E-1,3.5475898E0,-1.1417145E0,7.745889E-1,2.4072526E0,5.8622947E0,-1.1455195E0,-2.5414258E-1,6.399343E-2,7.8656E-1,5.136032E-1,1.5384301E0,1.5989631E0,3.1682098E0],"categories":[],"categories_nodes":[],"categories_segments":[],"categories_sizes":[],"default_left":[0,0,0,0,0,0,0,0,0,0,0,0,0,0,0],"id":6,"left_children":[1,3,5,7,9,11,13,-1,-1,-1,-1,-1,-1,-1,-1],"loss_changes":[1.0421217E5,6.4115168E4,1.9793031E4,3.4054258E4,3.0383898E4,9.504314E3,6.137453E3,0E0,0E0,0E0,0E0,0E0,0E0,0E0,0E0],"parents":[2147483647,0,0,1,1,2,2,3,3,4,4,5,5,6,6],"right_children":[2,4,6,8,10,12,14,-1,-1,-1,-1,-1,-1,-1,-1],"split_conditions":[3.5928684E1,6E0,5.526149E1,3.6589714E1,3.8903637E4,4.680877E1,8.408716E1,-1.1455195E0,-2.5414258E-1,6.399343E-2,7.8656E-1,5.136032E-1,1.5384301E0,1.5989631E0,3.1682098E0],"split_indices":[2,3,0,0,1,2,0,0,0,0,0,0,0,0,0],"split_type":[0,0,0,0,0,0,0,0,0,0,0,0,0,0,0],"sum_hessian":[8E4,7.2497E4,7.503E3,4.3193E4,2.9304E4,5.028E3,2.475E3,4.281E3,3.8912E4,2.2476E4,6.828E3,4.006E3,1.022E3,2.225E3,2.5E2],"tree_param":{"num_deleted":"0","num_feature":"5","num_nodes":"15","size_leaf_vector":"1"}},{"base_weights":[1.2456914E-4,-9.8061746E-1,8.648366E-1,-3.4729152E0,-6.512872E-1,1.4021103E-1,1.9923235E0,-2.1031473E0,-8.657548E-1,-3.1974086E-1,3.8671863E-1,-2.26796E-1,3.1514874E-1,5.4323995E-1,2.4214478E0],"categories":[],"categories_nodes":[],"categories_segments":[],"categories_sizes":[],"default_left":[0,0,0,0,0,0,0,0,0,0,0,0,0,0,0],"id":7,"left_children":[1,3,5,7,9,11,13,-1,-1,-1,-1,-1,-1,-1,-1],"loss_changes":[6.7846445E4,3.0765832E4,3.473554E4,9.065719E3,2.6633523E4,2.1116014E4,1.8341219E4,0E0,0E0,0E0,0E0,0E0,0E0,0E0,0E0],"parents":[2147483647,0,0,1,1,2,2,3,3,4,4,5,5,6,6],"right_children":[2,4,6,8,10,12,14,-1,-1,-1,-1,-1,-1,-1,-1],"split_conditions":[1.3644688E1,-1.0251096E1,5.2884747E1,-2.0932634E1,6.014508E1,6.482808E1,8.779743E1,-2.1031473E0,-8.657548E-1,-3.1974086E-1,3.8671863E-1,-2.26796E-1,3.1514874E-1,5.4323995E-1,2.4214478E0],"split_indices":[2,2,0,2,0,4,0,0,0,0,0,0,0,0,0],"split_type":[0,0,0,0,0,0,0,0,0,0,0,0,0,0,0],"sum_hessian":[8E4,3.7485E4,4.2515E4,4.374E3,3.3111E4,2.5882E4,1.6633E4,6.21E2,3.753E3,2.7283E4,5.828E3,1.3042E4,1.284E4,1.6152E4,4.81E2],"tree_param":{"num_deleted":"0","num_feature":"5","num_nodes":"15","size_leaf_vector":"1"}},{"base_weights":[8.9021334E-5,-4.989676E-1,1.4056036E0,-5.172289E0,-3.5763466E-1,1.0930914E0,5.7650604E0,-1.9624633E0,-5.94957E-1,-2.2411764E-1,3.5013762E-1,2.7225122E-1,1.1603963E0,6.846748E-2,2.0846791E0],"categories":[],"categories_nodes":[],"categories_segments":[],"categories_sizes":[],"default_left":[0,0,0,0,0,0,0,0,0,0,0,0,0,0,0],"id":8,"left_children":[1,3,5,7,9,11,13,-1,-1,-1,-1,-1,-1,-1,-1],"loss_changes":[5.611591E4,3.899306E4,2.855334E4,7.5545E3,3.4028523E4,1.0070641E4,9.188379E3,0E0,0E0,0E0,0E0,0E0,0E0,0E0,0E0],"parents":[2147483647,0,0,1,1,2,2,3,3,4,4,5,5,6,6],"right_children":[2,4,6,8,10,12,14,-1,-1,-1,-1,-1,-1,-1,-1],"split_conditions":[7.150401E1,2.5142603E1,5.0602066E4,1.9E1,8E0,3.876312E1,1.8677254E1,-1.9624633E0,-5.94957E-1,-2.2411764E-1,3.5013762E-1,2.7225122E-1,1.1603963E0,6.846748E-2,2.0846791E0],"split_indices":[4,0,1,3,3,2,0,0,0,0,0,0,0,0,0],"split_type":[0,0,0,0,0,0,0,0,0,0,0,0,0,0,0],"sum_hessian":[8E4,5.9038E4,2.0962E4,1.732E3,5.7306E4,1.9561E4,1.401E3,1.211E3,5.21E2,4.5648E4,1.1658E4,1.8336E4,1.225E3,2.47E2,1.154E3],"tree_param":{"num_deleted":"0","num_feature":"5","num_nodes":"15","size_leaf_vector":"1"}},{"base_weights":[7.678706E-5,-7.05629E-1,8.248924E-1,-1.663624E0,-1.9203143E-1,6.373687E-1,4.120117E0,-2.3590271E0,-4.6134767E-1,-3.1918514E-1,8.942001E-2,-6.1518496E-1,2.5077325E-1,-6.824778E-2,1.5497249E0],"categories":[],"categories_nodes":[],"categories_segments":[],"categories_sizes":[],"default_left":[0,0,0,0,0,0,0,0,0,0,0,0,0,0,0],"id":9,"left_children":[1,3,5,7,9,11,13,-1,-1,-1,-1,-1,-1,-1,-1],"loss_changes":[4.6567336E4,2.1212803E4,2.2791684E4,1.1723457E4,1.1994499E4,1.862869E4,9.029535E3,0E0,0E0,0E0,0E0,0E0,0E0,0E0,0E0],"parents":[2147483647,0,0,1,1,2,2,3,3,4,4,5,5,6,6],"right_children":[2,4,6,8,10,12,14,-1,-1,-1,-1,-1,-1,-1,-1],"split_conditions":[3.1454258E4,6.0656475E1,2E1,2.1373669E1,4E0,3.228098E1,1.8677254E1,-2.3590271E0,-4.6134767E-1,-3.1918514E-1,8.942001E-2,-6.1518496E-1,2.5077325E-1,-6.824778E-2,1.5497249E0],"split_indices":[1,4,3,0,3,0,0,0,0,0,0,0,0,0,0],"split_type":[0,0,0,0,0,0,0,0,0,0,0,0,0,0,0],"sum_hessian":[8E4,4.3113E4,3.6887E4,1.5046E4,2.8067E4,3.4902E4,1.985E3,2.98E2,1.4748E4,1.0099E4,1.7968E4,2.4E3,3.2502E4,3.85E2,1.6E3],"tree_param":{"num_deleted":"0","num_feature":"5","num_nodes":"15","size_leaf_vector":"1"}},{"base_weights":[2.926775E-5,-3.8923603E-1,1.1914158E0,-9.4171125E-1,2.7377263E-1,8.1486076E-1,3.4509916E0,-7.9204637E-1,-2.1186253E-1,4.4738986E-2,1.2490336E0,6.1995767E-2,4.8011607E-1,9.110293E-1,2.0112813E0],"categories":[],"categories_nodes":[],"categories_segments":[],"categories_sizes":[],"default_left":[0,0,0,0,0,0,0,0,0,0,0,0,0,0,0],"id":10,"left_children":[1,3,5,7,9,11,13,-1,-1,-1,-1,-1,-1,-1,-1],"loss_changes":[3.7102164E4,2.2087898E4,1.6760725E4,1.3154549E4,1.3287789E4,8.068617E3,3.7717773E3,0E0,0E0,0E0,0E0,0E0,0E0,0E0,0E0],"parents":[2147483647,0,0,1,1,2,2,3,3,4,4,5,5,6,6],"right_children":[2,4,6,8,10,12,14,-1,-1,-1,-1,-1,-1,-1,-1],"split_conditions":[2.5774256E1,6.5851814E1,4.341638E1,-6.158926E0,5.9483434E4,5.1587498E1,5.414012E1,-7.9204637E-1,-2.1186253E-1,4.4738986E-2,1.2490336E0,6.1995767E-2,4.8011607E-1,9.110293E-1,2.0112813E0],"split_indices":[2,4,2,2,1,0,2,0,0,0,0,0,0,0,0],"split_type":[0,0,0,0,0,0,0,0,0,0,0,0,0,0,0],"sum_hessian":[8E4,6.0299E4,1.9701E4,3.2891E4,2.7408E4,1.6888E4,2.813E3,4.004E3,2.8887E4,2.6558E4,8.5E2,9.519E3,7.369E3,2.497E3,3.16E2],"tree_param":{"num_deleted":"0","num_feature":"5","num_nodes":"15","size_leaf_vector":"1"}},{"base_weights":[6.6675944E-5,-6.180327E-1,5.410051E-1,-1.6840595E0,-3.2120153E-1,-4.005403E0,6.254361E-1,-1.2349391E0,-4.3985164E-1,-3.6762232E-1,-3.5756005E-3,-1.7373782E0,-5.311634E-1,1.4174908E-1,1.0755235E0],"categories":[],"categories_nodes":[],"categories_segments":[],"categories_sizes":[],"default_left":[0,0,0,0,0,0,0,0,0,0,0,0,0,0,0],"id":11,"left_children":[1,3,5,7,9,11,13,-1,-1,-1,-1,-1,-1,-1,-1],"loss_changes":[2.6748965E4,1.1814323E4,1.6379426E4,4.3038477E3,8.167883E3,3.0948525E3,1.895826E4,0E0,0E0,0E0,0E0,0E0,0E0,0E0,0E0],"parents":[2147483647,0,0,1,1,2,2,3,3,4,4,5,5,6,6],"right_children":[2,4,6,8,10,12,14,-1,-1,-1,-1,-1,-1,-1,-1],"split_conditions":[5E0,2.9518776E0,1.1396588E1,-1.6824608E1,4.317368E1,5.9483434E4,6.67369E4,-1.2349391E0,-4.3985164E-1,-3.6762232E-1,-3.5756005E-3,-1.7373782E0,-5.311634E-1,1.4174908E-1,1.0755235E0],"split_indices":[3,2,0,2,0,1,1,0,0,0,0,0,0,0,0],"split_type":[0,0,0,0,0,0,0,0,0,0,0,0,0,0,0],"sum_hessian":[8E4,3.7337E4,4.2663E4,8.131E3,2.9206E4,7.77E2,4.1886E4,6.67E2,7.464E3,7.443E3,2.1763E4,4.31E2,3.46E2,3.9829E4,2.057E3],"tree_param":{"num_deleted":"0","num_feature":"5","num_nodes":"15","size_leaf_vector":"1"}},{"base_weights":[7.153714E-6,-7.442572E-1,3.9014757E-1,-2.9962192E0,-5.9005743E-1,-3.723939E-1,7.5293714E-1,-2.1064935E0,-7.9662615E-1,-3.8446978E-1,-7.0322506E-2,-1.0769973E0,-7.9041995E-2,1.7016818E-1,7.5898635E-1],"categories":[],"categories_nodes":[],"categories_segments":[],"categories_sizes":[],"default_left":[0,0,0,0,0,0,0,0,0,0,0,0,0,0,0],"id":12,"left_children":[1,3,5,7,9,11,13,-1,-1,-1,-1,-1,-1,-1,-1],"loss_changes":[2.3229988E4,9.552525E3,1.452067E4,2.3999434E3,6.333E3,5.9295815E3,1.173602E4,0E0,0E0,0E0,0E0,0E0,0E0,0E0,0E0],"parents":[2147483647,0,0,1,1,2,2,3,3,4,4,5,5,6,6],"right_children":[2,4,6,8,10,12,14,-1,-1,-1,-1,-1,-1,-1,-1],"split_conditions":[2.6959621E4,3.3123383E1,5.9338634E1,7.5554495E0,8.422878E0,1.5374931E1,1E1,-2.1064935E0,-7.9662615E-1,-3.8446978E-1,-7.0322506E-2,-1.0769973E0,-7.9041995E-2,1.7016818E-1,7.5898635E-1],"split_indices":[1,0,4,0,2,0,3,0,0,0,0,0,0,0,0],"split_type":[0,0,0,0,0,0,0,0,0,0,0,0,0,0,0],"sum_hessian":[8E4,2.7513E4,5.2487E4,1.762E3,2.5751E4,1.6921E4,3.5566E4,1.36E2,1.626E3,8.745E3,1.7006E4,5.53E2,1.6368E4,3.2202E4,3.364E3],"tree_param":{"num_deleted":"0","num_feature":"5","num_nodes":"15","size_leaf_vector":"1"}},{"base_weights":[-4.0337167E-5,-1.8005379E-1,1.2580764E0,-2.0885115E0,-6.642074E-2,1.0158345E0,4.9017234E0,-1.56746E0,-5.523372E-1,-2.5826386E-1,5.717541E-2,-1.1477058E-1,3.8750327E-1,6.5722835E-1,1.7860367E0],"categories":[],"categories_nodes":[],"categories_segments":[],"categories_sizes":[],"default_left":[0,0,0,0,0,0,0,0,0,0,0,0,0,0,0],"id":13,"left_children":[1,3,5,7,9,11,13,-1,-1,-1,-1,-1,-1,-1,-1],"loss_changes":[1.8118688E4,1.5177729E4,8.833818E3,3.0419746E3,1.3487493E4,3.6229756E3,1.7661084E3,0E0,0E0,0E0,0E0,0E0,0E0,0E0,0E0],"parents":[2147483647,0,0,1,1,2,2,3,3,4,4,5,5,6,6],"right_children":[2,4,6,8,10,12,14,-1,-1,-1,-1,-1,-1,-1,-1],"split_conditions":[6.29153E1,-9.759013E0,9.198709E1,-2.4764439E1,3E0,5.024038E1,3.645994E1,-1.56746E0,-5.523372E-1,-2.5826386E-1,5.717541E-2,-1.1477058E-1,3.8750327E-1,6.5722835E-1,1.7860367E0],"split_indices":[0,2,0,2,3,4,4,0,0,0,0,0,0,0,0],"split_type":[0,0,0,0,0,0,0,0,0,0,0,0,0,0,0],"sum_hessian":[8E4,6.9987E4,1.0013E4,3.932E3,6.6055E4,9.39E3,6.23E2,2.86E2,3.646E3,1.6145E4,4.991E4,1.547E3,7.843E3,1.75E2,4.48E2],"tree_param":{"num_deleted":"0","num_feature":"5","num_nodes":"15","size_leaf_vector":"1"}},{"base_weights":[-2.3135635E-5,-1.2585448E-1,1.5683157E0,-2.9250118E-1,1.0076303E0,1.1429328E0,3.1576715E0,-3.1005743E-1,-1.8162336E-2,-4.3115819E-1,3.4225583E-1,1.5532868E-1,5.494444E-1,7.488611E-1,1.3244884E0],"categories":[],"categories_nodes":[],"categories_segments":[],"categories_sizes":[],"default_left":[0,0,0,0,0,0,0,0,0,0,0,0,0,0,0],"id":14,"left_children":[1,3,5,7,9,11,13,-1,-1,-1,-1,-1,-1,-1,-1],"loss_changes":[1.5788089E4,1.3989601E4,4.0136865E3,1.10983955E4,3.0935596E3,2.0174795E3,1.031877E3,0E0,0E0,0E0,0E0,0E0,0E0,0E0,0E0],"parents":[2147483647,0,0,1,1,2,2,3,3,4,4,5,5,6,6],"right_children":[2,4,6,8,10,12,14,-1,-1,-1,-1,-1,-1,-1,-1],"split_conditions":[3.7905277E1,7.696543E1,4.7857674E1,4.2351536E1,2.5142603E1,6E0,5.526149E1,-3.1005743E-1,-1.8162336E-2,-4.3115819E-1,3.4225583E-1,1.5532868E-1,5.494444E-1,7.488611E-1,1.3244884E0],"split_indices":[2,4,2,0,0,3,0,0,0,0,0,0,0,0,0],"split_type":[0,0,0,0,0,0,0,0,0,0,0,0,0,0,0],"sum_hessian":[8E4,7.4059E4,5.941E3,6.4567E4,9.492E3,4.688E3,1.253E3,1.5392E4,4.9175E4,4.9E2,9.002E3,2.458E3,2.23E3,8.23E2,4.3E2],"tree_param":{"num_deleted":"0","num_feature":"5","num_nodes":"15","size_leaf_vector":"1"}},{"base_weights":[1.3113293E-5,-2.6407203E-1,6.745871E-1,-1.3123173E0,-1.03671454E-1,5.3718805E-1,2.5167277E0,-1.053282E0,-3.573466E-1,-2.2743313E-1,2.5507174E-2,-6.3771975E-1,1.9146946E-1,-3.6405712E-1,8.5008174E-1],"categories":[],"categories_nodes":[],"categories_segments":[],"categories_sizes":[],"default_left":[0,0,0,0,0,0,0,0,0,0,0,0,0,0,0],"id":15,"left_children":[1,3,5,7,9,11,13,-1,-1,-1,-1,-1,-1,-1,-1],"loss_changes":[1.4251954E4,9.666855E3,5.6956123E3,2.0283691E3,6.1578735E3,5.6375835E3,1.8497764E3,0E0,0E0,0E0,0E0,0E0,0E0,0E0,0E0],"parents":[2147483647,0,0,1,1,2,2,3,3,4,4,5,5,6,6],"right_children":[2,4,6,8,10,12,14,-1,-1,-1,-1,-1,-1,-1,-1],"split_conditions":[3.6017535E4,5.3011417E1,8.222292E4,2.4127172E1,3.3488946E0,1.8677254E1,7.5554495E0,-1.053282E0,-3.573466E-1,-2.2743313E-1,2.5507174E-2,-6.3771975E-1,1.9146946E-1,-3.6405712E-1,8.5008174E-1],"split_indices":[1,4,1,4,2,0,0,0,0,0,0,0,0,0,0],"split_type":[0,0,0,0,0,0,0,0,0,0,0,0,0,0,0],"sum_hessian":[8E4,5.7493E4,2.2507E4,7.629E3,4.9864E4,2.0946E4,1.561E3,3.97E2,7.232E3,1.1159E4,3.8705E4,7.65E2,2.0181E4,1.22E2,1.439E3],"tree_param":{"num_deleted":"0","num_feature":"5","num_nodes":"15","size_leaf_vector":"1"}},{"base_weights":[-1.1706564E-5,-7.657709E-1,1.6345897E-1,-8.454488E-1,1.974231E0,-1.8165411E-1,4.8732936E-1,-1.4756393E0,-2.3621818E-1,5.035118E-2,8.926679E-1,-7.0880145E-2,9.526276E-1,1.15275055E-1,5.2037245E-1],"categories":[],"categories_nodes":[],"categories_segments":[],"categories_sizes":[],"default_left":[0,0,0,0,0,0,0,0,0,0,0,0,0,0,0],"id":16,"left_children":[1,3,5,7,9,11,13,-1,-1,-1,-1,-1,-1,-1,-1],"loss_changes":[1.0014584E4,3.0742725E3,7.3689863E3,3.2304346E3,7.194004E2,5.8526045E3,4.3719614E3,0E0,0E0,0E0,0E0,0E0,0E0,0E0,0E0],"parents":[2147483647,0,0,1,1,2,2,3,3,4,4,5,5,6,6],"right_children":[2,4,6,8,10,12,14,-1,-1,-1,-1,-1,-1,-1,-1],"split_conditions":[2.21915E4,2.2E1,1.4309123E1,1.8677254E1,4.6948387E1,8.408716E1,4.2692654E1,-1.4756393E0,-2.3621818E-1,5.035118E-2,8.926679E-1,-7.0880145E-2,9.526276E-1,1.15275055E-1,5.2037245E-1],"split_indices":[1,3,2,0,4,0,2,0,0,0,0,0,0,0,0],"split_type":[0,0,0,0,0,0,0,0,0,0,0,0,0,0,0],"sum_hessian":[8E4,1.4073E4,6.5927E4,1.3676E4,3.97E2,3.1917E4,3.401E4,1.91E2,1.3485E4,1.42E2,2.55E2,3.1407E4,5.1E2,3.1415E4,2.595E3],"tree_param":{"num_deleted":"0","num_feature":"5","num_nodes":"15","size_leaf_vector":"1"}},{"base_weights":[8.042265E-7,-5.78269E-1,1.8484035E-1,-6.69451E-1,1.3368988E0,4.9484782E-2,1.09334E0,-4.542592E-1,-1.430138E-1,1.1431234E-1,7.4878186E-1,-2.6209906E-1,4.969733E-2,2.6576403E-1,9.10016E-1],"categories":[],"categories_nodes":[],"categories_segments":[],"categories_sizes":[],"default_left":[0,0,0,0,0,0,0,0,0,0,0,0,0,0,0],"id":17,"left_children":[1,3,5,7,9,11,13,-1,-1,-1,-1,-1,-1,-1,-1],"loss_changes":[8.551184E3,3.3848525E3,7.4549087E3,3.0110303E3,9.750896E2,5.658813E3,3.1612246E3,0E0,0E0,0E0,0E0,0E0,0E0,0E0,0E0],"parents":[2147483647,0,0,1,1,2,2,3,3,4,4,5,5,6,6],"right_children":[2,4,6,8,10,12,14,-1,-1,-1,-1,-1,-1,-1,-1],"split_conditions":[5.6881924E1,2.4E1,9E0,4.334051E1,3.645994E1,3.7530903E1,2.4E1,-4.542592E-1,-1.430138E-1,1.1431234E-1,7.4878186E-1,-2.6209906E-1,4.969733E-2,2.6576403E-1,9.10016E-1],"split_indices":[4,3,3,4,4,0,3,0,0,0,0,0,0,0,0],"split_type":[0,0,0,0,0,0,0,0,0,0,0,0,0,0,0],"sum_hessian":[8E4,1.9377E4,6.0623E4,1.8497E4,8.8E2,5.2763E4,7.86E3,3.435E3,1.5062E4,4.83E2,3.97E2,5.897E3,4.6866E4,7.102E3,7.58E2],"tree_param":{"num_deleted":"0","num_feature":"5","num_nodes":"15","size_leaf_vector":"1"}},{"base_weights":[1.5561473E-5,-7.408269E-1,1.3081272E-1,-3.6669273E0,-7.019934E-1,-1.341927E0,1.9116686E-1,-1.5255994E0,-7.746937E-1,-2.4567598E-1,4.0943157E-2,-1.0031006E0,-3.3728862E-1,-1.6829716E-2,1.6389214E-1],"categories":[],"categories_nodes":[],"categories_segments":[],"categories_sizes":[],"default_left":[0,0,0,0,0,0,0,0,0,0,0,0,0,0,0],"id":18,"left_children":[1,3,5,7,9,11,13,-1,-1,-1,-1,-1,-1,-1,-1],"loss_changes":[7.752201E3,1.3615635E3,6.0442354E3,2.2840039E2,1.1617808E3,1.1624556E3,5.736134E3,0E0,0E0,0E0,0E0,0E0,0E0,0E0,0E0],"parents":[2147483647,0,0,1,1,2,2,3,3,4,4,5,5,6,6],"right_children":[2,4,6,8,10,12,14,-1,-1,-1,-1,-1,-1,-1,-1],"split_conditions":[2E0,2.1373669E1,-1.2763148E1,1.1396588E1,4.0631273E4,-2.4764439E1,5.245277E1,-1.5255994E0,-7.746937E-1,-2.4567598E-1,4.0943157E-2,-1.0031006E0,-3.3728862E-1,-1.6829716E-2,1.6389214E-1],"split_indices":[3,0,2,0,1,2,0,0,0,0,0,0,0,0,0],"split_type":[0,0,0,0,0,0,0,0,0,0,0,0,0,0,0],"sum_hessian":[8E4,1.2004E4,6.7996E4,1.56E2,1.1848E4,2.676E3,6.532E4,6.6E1,9E1,1.0398E4,1.45E3,2.61E2,2.415E3,3.8509E4,2.6811E4],"tree_param":{"num_deleted":"0","num_feature":"5","num_nodes":"15","size_leaf_vector":"1"}},{"base_weights":[-3.478229E-5,-6.822769E-2,1.1736501E0,-8.4463066E-1,2.29488E-2,-7.7634794E-1,1.3510715E0,-6.3474214E-1,-2.2916673E-1,-3.2531247E-2,1.3919427E-1,-6.3072217E-1,3.276429E-1,3.696974E-1,1.051071E0],"categories":[],"categories_nodes":[],"categories_segments":[],"categories_sizes":[],"default_left":[0,0,0,0,0,0,0,0,0,0,0,0,0,0,0],"id":19,"left_children":[1,3,5,7,9,11,13,-1,-1,-1,-1,-1,-1,-1,-1],"loss_changes":[6.40312E3,5.352358E3,1.5209004E3,8.139365E2,3.9208787E3,9.11623E2,1.0249941E3,0E0,0E0,0E0,0E0,0E0,0E0,0E0,0E0],"parents":[2147483647,0,0,1,1,2,2,3,3,4,4,5,5,6,6],"right_children":[2,4,6,8,10,12,14,-1,-1,-1,-1,-1,-1,-1,-1],"split_conditions":[8.256485E1,1.9293059E4,2.3642012E1,3.0654642E1,2.6574223E1,1.7E1,8.779743E1,-6.3474214E-1,-2.2916673E-1,-3.2531247E-2,1.3919427E-1,-6.3072217E-1,3.276429E-1,3.696974E-1,1.051071E0],"split_indices":[4,1,0,0,2,3,0,0,0,0,0,0,0,0,0],"split_type":[0,0,0,0,0,0,0,0,0,0,0,0,0,0,0],"sum_hessian":[8E4,7.5608E4,4.392E3,7.945E3,6.7663E4,3.66E2,4.026E3,4.73E2,7.472E3,5.2133E4,1.553E4,2.14E2,1.52E2,3.817E3,2.09E2],"tree_param":{"num_deleted":"0","num_feature":"5","num_nodes":"15","size_leaf_vector":"1"}},{"base_weights":[-1.9492352E-5,-1.6363637E-1,3.7614414E-1,-2.8001864E0,-1.3784714E-1,-3.9427766E-1,5.2403754E-1,-1.3485134E0,-6.262214E-1,-6.749048E-2,1.7255159E-1,-3.0969542E-1,2.342794E-1,1.03872664E-1,3.2250458E-1],"categories":[],"categories_nodes":[],"categories_segments":[],"categories_sizes":[],"default_left":[0,0,0,0,0,0,0,0,0,0,0,0,0,0,0],"id":20,"left_children":[1,3,5,7,9,11,13,-1,-1,-1,-1,-1,-1,-1,-1],"loss_changes":[4.9238604E3,3.7904485E3,2.7632588E3,6.429712E2,3.4299062E3,2.9296448E3,1.9926499E3,0E0,0E0,0E0,0E0,0E0,0E0,0E0,0E0],"parents":[2147483647,0,0,1,1,2,2,3,3,4,4,5,5,6,6],"right_children":[2,4,6,8,10,12,14,-1,-1,-1,-1,-1,-1,-1,-1],"split_conditions":[7E0,2.1373669E1,3.6822002E1,7.5554495E0,4.1021766E4,1.6E1,7.231896E1,-1.3485134E0,-6.262214E-1,-6.749048E-2,1.7255159E-1,-3.0969542E-1,2.342794E-1,1.03872664E-1,3.2250458E-1],"split_indices":[3,0,0,0,1,3,4,0,0,0,0,0,0,0,0],"split_type":[0,0,0,0,0,0,0,0,0,0,0,0,0,0,0],"sum_hessian":[8E4,5.5751E4,2.4249E4,5.39E2,5.5212E4,3.905E3,2.0344E4,1.58E2,3.81E2,4.9201E4,6.011E3,2.531E3,1.374E3,1.5382E4,4.962E3],"tree_param":{"num_deleted":"0","num_feature":"5","num_nodes":"15","size_leaf_vector":"1"}},{"base_weights":[-3.3373515E-5,-7.5053114E-1,6.711406E-2,-3.095388E-1,-1.2315662E0,-1.9361138E-1,2.6533306E-1,-4.3825608E-1,-3.1389408E-2,-5.1264817E-1,-1.8075514E-1,-7.3379494E-2,3.7135345E-1,1.7308267E-2,1.797616E-1],"categories":[],"categories_nodes":[],"categories_segments":[],"categories_sizes":[],"default_left":[0,0,0,0,0,0,0,0,0,0,0,0,0,0,0],"id":21,"left_children":[1,3,5,7,9,11,13,-1,-1,-1,-1,-1,-1,-1,-1],"loss_changes":[4.0316206E3,1.3933313E3,3.795071E3,8.087928E2,9.422637E2,2.3151116E3,2.8919895E3,0E0,0E0,0E0,0E0,0E0,0E0,0E0,0E0],"parents":[2147483647,0,0,1,1,2,2,3,3,4,4,5,5,6,6],"right_children":[2,4,6,8,10,12,14,-1,-1,-1,-1,-1,-1,-1,-1],"split_conditions":[-6.938868E0,5.053545E1,6.2831062E1,2.8522968E1,6.0495598E1,7.462012E4,5.3101833E1,-4.3825608E-1,-3.1389408E-2,-5.1264817E-1,-1.8075514E-1,-7.3379494E-2,3.7135345E-1,1.7308267E-2,1.797616E-1],"split_indices":[2,0,4,0,0,1,0,0,0,0,0,0,0,0,0],"split_type":[0,0,0,0,0,0,0,0,0,0,0,0,0,0,0],"sum_hessian":[8E4,6.569E3,7.3431E4,3.428E3,3.141E3,3.1715E4,4.1716E4,5.17E2,2.911E3,1.785E3,1.356E3,3.0625E4,1.09E3,2.5721E4,1.5995E4],"tree_param":{"num_deleted":"0","num_feature":"5","num_nodes":"15","size_leaf_vector":"1"}},{"base_weights":[-3.123219E-5,-1.9159261E-2,2.4253786E0,-2.9756686E-1,1.2836751E-1,1.7375907E0,3.0903277E0,-2.589282E-1,-5.680193E-2,-3.5916668E-1,4.9068473E-2,2.53836E-3,5.915732E-1,8.355551E-1,1.2901303E0],"categories":[],"categories_nodes":[],"categories_segments":[],"categories_sizes":[],"default_left":[0,0,0,0,0,0,0,0,0,0,0,0,0,0,0],"id":22,"left_children":[1,3,5,7,9,11,13,-1,-1,-1,-1,-1,-1,-1,-1],"loss_changes":[3.7115576E3,3.2602153E3,2.8092773E2,1.6825557E3,2.420734E3,1.25585754E2,1.0507715E2,0E0,0E0,0E0,0E0,0E0,0E0,0E0,0E0],"parents":[2147483647,0,0,1,1,2,2,3,3,4,4,5,5,6,6],"right_children":[2,4,6,8,10,12,14,-1,-1,-1,-1,-1,-1,-1,-1],"split_conditions":[5.0723484E1,4E0,5.414012E1,5.452446E1,2.7594093E1,3.581464E1,5.945497E1,-2.589282E-1,-5.680193E-2,-3.5916668E-1,4.9068473E-2,2.53836E-3,5.915732E-1,8.355551E-1,1.2901303E0],"split_indices":[2,3,2,4,4,0,0,0,0,0,0,0,0,0,0],"split_type":[0,0,0,0,0,0,0,0,0,0,0,0,0,0,0],"sum_hessian":[8E4,7.9375E4,6.25E2,2.7492E4,5.1883E4,3.09E2,3.16E2,4.415E3,2.3077E4,1.341E3,5.0542E4,3.7E1,2.72E2,2.55E2,6.1E1],"tree_param":{"num_deleted":"0","num_feature":"5","num_nodes":"15","size_leaf_vector":"1"}},{"base_weights":[4.0670884E-6,-2.17573E-2,1.826388E0,-3.5904413E-1,9.3478546E-2,2.5163138E0,7.8573954E-1,-2.6898295E-1,-7.559888E-2,-1.5392128E-1,4.7487024E-2,3.3746135E-1,9.7857416E-1,5.544876E-1,-2.594106E-2],"categories":[],"categories_nodes":[],"categories_segments":[],"categories_sizes":[],"default_left":[0,0,0,0,0,0,0,0,0,0,0,0,0,0,0],"id":23,"left_children":[1,3,5,7,9,11,13,-1,-1,-1,-1,-1,-1,-1,-1],"loss_changes":[3.1796482E3,3.072901E3,6.743511E2,1.158333E3,2.3166233E3,5.835327E2,3.495515E2,0E0,0E0,0E0,0E0,0E0,0E0,0E0,0E0],"parents":[2147483647,0,0,1,1,2,2,3,3,4,4,5,5,6,6],"right_children":[2,4,6,8,10,12,14,-1,-1,-1,-1,-1,-1,-1,-1],"split_conditions":[8.779743E1,2.4594666E4,2.095303E1,1.4904118E4,4.9277966E1,-5.457868E0,1.3E1,-2.6898295E-1,-7.559888E-2,-1.5392128E-1,4.7487024E-2,3.3746135E-1,9.7857416E-1,5.544876E-1,-2.594106E-2],"split_indices":[0,1,2,1,4,2,3,0,0,0,0,0,0,0,0],"split_type":[0,0,0,0,0,0,0,0,0,0,0,0,0,0,0],"sum_hessian":[8E4,7.9059E4,9.41E2,2.0132E4,5.8927E4,5.65E2,3.76E2,3.342E3,1.679E4,5.688E3,5.3239E4,1.98E2,3.67E2,1.69E2,2.07E2],"tree_param":{"num_deleted":"0","num_feature":"5","num_nodes":"15","size_leaf_vector":"1"}},{"base_weights":[2.1341788E-5,-2.3866199E-2,1.5074246E0,-9.226473E-1,2.0152584E-2,2.3152193E-2,1.7957349E0,-3.9638057E-1,7.76589E-3,-2.9054126E-3,3.4494147E-1,-1.8621477E-1,1.5508647E-1,2.060285E-1,6.3340497E-1],"categories":[],"categories_nodes":[],"categories_segments":[],"categories_sizes":[],"default_left":[0,0,0,0,0,0,0,0,0,0,0,0,0,0,0],"id":24,"left_children":[1,3,5,7,9,11,13,-1,-1,-1,-1,-1,-1,-1,-1],"loss_changes":[2.8807246E3,3.115783E3,5.340161E2,1.3903289E3,2.5305725E3,6.518142E1,3.6430908E2,0E0,0E0,0E0,0E0,0E0,0E0,0E0,0E0],"parents":[2147483647,0,0,1,1,2,2,3,3,4,4,5,5,6,6],"right_children":[2,4,6,8,10,12,14,-1,-1,-1,-1,-1,-1,-1,-1],"split_conditions":[8.584966E4,3.0084442E1,2.4127172E1,1.4E1,4.488058E1,1.6815535E1,2.1373669E1,-3.9638057E-1,7.76589E-3,-2.9054126E-3,3.4494147E-1,-1.8621477E-1,1.5508647E-1,2.060285E-1,6.3340497E-1],"split_indices":[1,0,4,3,2,4,0,0,0,0,0,0,0,0,0],"split_type":[0,0,0,0,0,0,0,0,0,0,0,0,0,0,0],"sum_hessian":[8E4,7.8753E4,1.247E3,3.676E3,7.5077E4,2.03E2,1.044E3,2.588E3,1.088E3,7.3146E4,1.931E3,8.8E1,1.15E2,2.32E2,8.12E2],"tree_param":{"num_deleted":"0","num_feature":"5","num_nodes":"15","size_leaf_vector":"1"}},{"base_weights":[2.539746E-5,-1.4204267E0,2.264498E-2,-2.2375588E0,-1.143926E0,2.362682E-4,1.3411489E0,-5.7288295E-1,-7.848044E-1,-3.634362E-1,3.0504864E-1,-6.205428E-1,4.234231E-3,-1.6229916E-1,4.4841042E-1],"categories":[],"categories_nodes":[],"categories_segments":[],"categories_sizes":[],"default_left":[0,0,0,0,0,0,0,0,0,0,0,0,0,0,0],"id":25,"left_children":[1,3,5,7,9,11,13,-1,-1,-1,-1,-1,-1,-1,-1],"loss_changes":[2.570467E3,2.807661E2,2.326686E3,3.4224487E1,1.3824243E2,2.223072E3,3.811438E2,0E0,0E0,0E0,0E0,0E0,0E0,0E0,0E0],"parents":[2147483647,0,0,1,1,2,2,3,3,4,4,5,5,6,6],"right_children":[2,4,6,8,10,12,14,-1,-1,-1,-1,-1,-1,-1,-1],"split_conditions":[-1.7852251E1,-2.4764439E1,2.5E1,5.044497E1,8.779743E1,7.5554495E0,7.5554495E0,-5.7288295E-1,-7.848044E-1,-3.634362E-1,3.0504864E-1,-6.205428E-1,4.234231E-3,-1.6229916E-1,4.4841042E-1],"split_indices":[2,2,3,0,0,0,0,0,0,0,0,0,0,0,0],"split_type":[0,0,0,0,0,0,0,0,0,0,0,0,0,0,0],"sum_hessian":[8E4,1.253E3,7.8747E4,3.15E2,9.38E2,7.7432E4,1.315E3,1.72E2,1.43E2,9.1E2,2.8E1,5.15E2,7.6917E4,9.9E1,1.216E3],"tree_param":{"num_deleted":"0","num_feature":"5","num_nodes":"15","size_leaf_vector":"1"}},{"base_weights":[-4.1229105E-6,-1.20186515E-1,2.1774516E-1,-1.685837E-1,5.5169445E-1,-1.5759465E-1,3.428189E-1,-2.0148237E-1,-3.610981E-2,3.2762114E-2,2.674738E-1,-7.5893484E-2,2.3731636E-1,-5.8394585E-2,1.2913057E-1],"categories":[],"categories_nodes":[],"categories_segments":[],"categories_sizes":[],"default_left":[0,0,0,0,0,0,0,0,0,0,0,0,0,0,0],"id":26,"left_children":[1,3,5,7,9,11,13,-1,-1,-1,-1,-1,-1,-1,-1],"loss_changes":[2.0936226E3,1.676352E3,1.3357377E3,1.1662526E3,5.2087E2,6.4373364E2,1.0050515E3,0E0,0E0,0E0,0E0,0E0,0E0,0E0,0E0],"parents":[2147483647,0,0,1,1,2,2,3,3,4,4,5,5,6,6],"right_children":[2,4,6,8,10,12,14,-1,-1,-1,-1,-1,-1,-1,-1],"split_conditions":[3.401734E4,6.609367E1,3.9344532E0,3.5232704E1,1.2397219E1,7.839465E4,5.0544357E1,-2.0148237E-1,-3.610981E-2,3.2762114E-2,2.674738E-1,-7.5893484E-2,2.3731636E-1,-5.8394585E-2,1.2913057E-1],"split_indices":[1,0,2,0,2,1,4,0,0,0,0,0,0,0,0],"split_type":[0,0,0,0,0,0,0,0,0,0,0,0,0,0,0],"sum_hessian":[8E4,5.1549E4,2.8451E4,4.8086E4,3.463E3,7.111E3,2.134E4,4.205E3,4.3881E4,1.505E3,1.958E3,6.462E3,6.49E2,2.991E3,1.8349E4],"tree_param":{"num_deleted":"0","num_feature":"5","num_nodes":"15","size_leaf_vector":"1"}},{"base_weights":[7.2005685E-7,-5.1245755E-1,4.8025947E-2,-1.4058669E0,-4.780076E-1,1.8942847E-3,5.606608E-1,-7.710894E-1,-3.6610866E-1,-1.6684452E-1,-4.3882295E-2,-5.8469012E-2,2.9826416E-2,1.2645297E-1,3.371329E-1],"categories":[],"categories_nodes":[],"categories_segments":[],"categories_sizes":[],"default_left":[0,0,0,0,0,0,0,0,0,0,0,0,0,0,0],"id":27,"left_children":[1,3,5,7,9,11,13,-1,-1,-1,-1,-1,-1,-1,-1],"loss_changes":[1.9689231E3,2.1031042E2,1.7298303E3,5.1729156E1,1.7105505E2,1.2880057E3,4.7273035E2,0E0,0E0,0E0,0E0,0E0,0E0,0E0,0E0],"parents":[2147483647,0,0,1,1,2,2,3,3,4,4,5,5,6,6],"right_children":[2,4,6,8,10,12,14,-1,-1,-1,-1,-1,-1,-1,-1],"split_conditions":[1E0,-1.2763148E1,7.996416E1,-2.4764439E1,7.4124245E1,8.097631E0,9.0271126E1,-7.710894E-1,-3.6610866E-1,-1.6684452E-1,-4.3882295E-2,-5.8469012E-2,2.9826416E-2,1.2645297E-1,3.371329E-1],"split_indices":[3,2,4,2,4,2,4,0,0,0,0,0,0,0,0],"split_type":[0,0,0,0,0,0,0,0,0,0,0,0,0,0,0],"sum_hessian":[8E4,6.854E3,7.3146E4,2.53E2,6.601E3,6.7108E4,6.038E3,3.3E1,2.2E2,5.342E3,1.259E3,2.2237E4,4.4871E4,4.843E3,1.195E3],"tree_param":{"num_deleted":"0","num_feature":"5","num_nodes":"15","size_leaf_vector":"1"}},{"base_weights":[-1.1376358E-5,-4.57752E-2,3.8796458E-1,-2.5219667E-1,6.679054E-2,-5.60432E-1,5.323848E-1,-1.3584097E-1,-1.6322922E-2,-1.8744838E-1,3.5185035E-2,-4.181763E-1,-7.7774E-2,1.3484426E-1,3.8597745E-1],"categories":[],"categories_nodes":[],"categories_segments":[],"categories_sizes":[],"default_left":[0,0,0,0,0,0,0,0,0,0,0,0,0,0,0],"id":28,"left_children":[1,3,5,7,9,11,13,-1,-1,-1,-1,-1,-1,-1,-1],"loss_changes":[1.4204567E3,1.6628073E3,1.1564424E3,1.00194763E3,1.6172677E3,2.7979333E2,4.5749268E2,0E0,0E0,0E0,0E0,0E0,0E0,0E0,0E0],"parents":[2147483647,0,0,1,1,2,2,3,3,4,4,5,5,6,6],"right_children":[2,4,6,8,10,12,14,-1,-1,-1,-1,-1,-1,-1,-1],"split_conditions":[4.3763094E4,4.609696E1,3.1028366E1,1.4806878E1,-7.808463E0,5.9483434E4,8.952552E4,-1.3584097E-1,-1.6322922E-2,-1.8744838E-1,3.5185035E-2,-4.181763E-1,-7.7774E-2,1.3484426E-1,3.8597745E-1],"split_indices":[1,0,4,2,2,1,1,0,0,0,0,0,0,0,0],"split_type":[0,0,0,0,0,0,0,0,0,0,0,0,0,0,0],"sum_hessian":[8E4,7.156E4,8.44E3,2.5252E4,4.6308E4,1.115E3,7.325E3,1.2536E4,1.2716E4,3.15E3,4.3158E4,2.95E2,8.2E2,6.601E3,7.24E2],"tree_param":{"num_deleted":"0","num_feature":"5","num_nodes":"15","size_leaf_vector":"1"}},{"base_weights":[-1.2317157E-5,-2.041433E0,8.134511E-3,-2.555304E0,-8.788776E-1,-3.7779577E-2,3.888361E-1,-1.0848894E0,-5.7330316E-1,-4.6929443E-1,-1.10212065E-1,-2.0724545E-1,-1.0851312E-3,1.7355949E-1,-2.6122408E-2],"categories":[],"categories_nodes":[],"categories_segments":[],"categories_sizes":[],"default_left":[0,0,0,0,0,0,0,0,0,0,0,0,0,0,0],"id":29,"left_children":[1,3,5,7,9,11,13,-1,-1,-1,-1,-1,-1,-1,-1],"loss_changes":[1.3305216E3,1.877284E2,1.3928564E3,1.4347937E2,3.41351E1,1.5863976E3,7.742759E2,0E0,0E0,0E0,0E0,0E0,0E0,0E0,0E0],"parents":[2147483647,0,0,1,1,2,2,3,3,4,4,5,5,6,6],"right_children":[2,4,6,8,10,12,14,-1,-1,-1,-1,-1,-1,-1,-1],"split_conditions":[4.013886E0,7.064261E4,1E1,1E1,1.3E1,4.6948387E1,6.1398453E1,-1.0848894E0,-5.7330316E-1,-4.6929443E-1,-1.10212065E-1,-2.0724545E-1,-1.0851312E-3,1.7355949E-1,-2.6122408E-2],"split_indices":[0,1,3,3,3,4,0,0,0,0,0,0,0,0,0],"split_type":[0,0,0,0,0,0,0,0,0,0,0,0,0,0,0],"sum_hessian":[8E4,3.17E2,7.9683E4,2.19E2,9.8E1,7.1108E4,8.575E3,8.1E1,1.38E2,4.1E1,5.7E1,3.534E3,6.7574E4,6.131E3,2.444E3],"tree_param":{"num_deleted":"0","num_feature":"5","num_nodes":"15","size_leaf_vector":"1"}}]},"name":"gbtree"},"learner_model_param":{"base_score":"3.7278244E1","boost_from_average":"1","num_class":"0","num_feature":"5","num_target":"1"},"objective":{"name":"reg:squarederror","reg_loss_param":{"scale_pos_weight":"1"}}},"version":[2,1,4]}